{"0_weights": [[0.049662258476018906, 0.4144634008407593, -0.23163798451423645, -0.43273302912712097, 0.9724085927009583, -0.6983848810195923, -0.14576849341392517, 0.21973693370819092, 0.37430593371391296, -0.38351619243621826, 0.32855209708213806, -0.5857191681861877, 0.105875164270401, 0.21399417519569397, -0.34088149666786194, 0.07661329954862595], [-0.588628351688385, 0.3935298025608063, 0.5634163022041321, -0.3828679919242859, -0.3571735918521881, -0.036370884627103806, 0.6645825505256653, -0.11087828874588013, 0.6406891345977783, 0.4553631544113159, 0.1551351696252823, -0.3338969051837921, -0.034958984702825546, 0.575814962387085, 0.27133020758628845, -0.661881685256958], [0.16204296052455902, 0.03045753203332424, 0.06295867264270782, -0.5325889587402344, 0.16813665628433228, 0.6105971336364746, 0.0023155687376856804, -0.29305779933929443, -0.10633087158203125, 0.07219767570495605, -0.010767503641545773, 0.2955561876296997, -0.13938841223716736, -1.0677765607833862, 0.503734290599823, 0.7302833795547485], [-0.1776622086763382, 0.701261579990387, -0.18553084135055542, 0.24822860956192017, -0.00816835556179285, 0.7844846248626709, -0.011681159026920795, 0.29452553391456604, -0.03723638132214546, -0.09942921996116638, -0.4137890934944153, 0.6467006802558899, 0.3014412224292755, -0.5262987017631531, -0.28553488850593567, -0.049140170216560364], [0.1703316569328308, 0.1359984427690506, 0.2630278170108795, 0.1215776652097702, -0.3007698953151703, 0.2521752417087555, 0.04935509338974953, 0.38708847761154175, 0.6758825182914734, 0.6629517674446106, 0.95749831199646, -0.06909067183732986, 0.7083696722984314, -0.8764358758926392, 0.4867136776447296, -0.16625098884105682], [0.957904577255249, -0.5100153684616089, -0.063299261033535, -0.6385388970375061, 0.7410536408424377, 0.40007877349853516, 0.14737072587013245, -0.5140061974525452, 0.2604996860027313, -0.06712574511766434, 0.485499769449234, 0.8452211618423462, 0.3003893196582794, 0.6770955324172974, 0.5121579170227051, -0.23554199934005737], [0.19491709768772125, 0.44078534841537476, -0.08076045662164688, -0.32078057527542114, 0.2557196319103241, -0.08592254668474197, -0.12302470952272415, -0.1360667198896408, -0.737339973449707, -0.6918472647666931, 0.6974645853042603, -0.30660465359687805, 0.5324962735176086, 0.13709710538387299, -0.12958545982837677, 0.6254169344902039], [0.4919961988925934, -0.8019184470176697, 0.14692623913288116, -0.22401826083660126, 0.09360092133283615, -0.01468370109796524, 0.7819147706031799, 0.6691927909851074, 0.12672671675682068, 0.17427067458629608, 0.4561206102371216, 0.37822428345680237, -0.985863208770752, 0.02202565222978592, -0.08348126709461212, 0.36809292435646057], [0.6933045387268066, -1.0459221601486206, 0.10524135082960129, -0.020221682265400887, -0.1531277447938919, 0.1770615130662918, 0.15105107426643372, -0.08080290257930756, 0.6624940633773804, -0.1503509134054184, -0.15142807364463806, 0.09303763508796692, -0.15935362875461578, -0.23530982434749603, 0.21579274535179138, 0.30874502658843994], [-0.3946860730648041, -0.451144814491272, 0.3676473796367645, -0.008418569341301918, -1.1423453092575073, -0.25950995087623596, 0.41212913393974304, 0.5865501165390015, 0.16411423683166504, 0.4718758463859558, 0.30156368017196655, 0.4518643617630005, -1.1061862707138062, 0.1785413771867752, 0.16782307624816895, 0.011496750637888908], [-0.22137047350406647, -0.08182449638843536, 1.0903054475784302, -0.23679137229919434, 0.20818527042865753, 1.0604851245880127, -1.1978182792663574, 0.13841365277767181, -0.8324939608573914, 1.2418022155761719, -0.43667465448379517, 0.6225776076316833, -0.207948699593544, -0.18082784116268158, 0.5450943112373352, -0.6496037840843201]], "1_weights": [[0.03206305578351021, 0.6631617546081543, 0.17095685005187988, 0.5377682447433472, -0.7649189829826355, 0.5154581665992737, 0.1717233657836914, 0.17040373384952545, 0.14490535855293274, 0.46639618277549744, 0.362880140542984, 0.5432188510894775, 0.5370786786079407, 0.309431791305542, 0.6692779660224915, -0.35051098465919495], [-1.5929245948791504, 0.4807208776473999, 0.5660383701324463, -0.11591336876153946, -0.8312203884124756, 0.13332754373550415, -0.003739237552508712, -2.204352617263794, -1.1282206773757935, -0.5796236395835876, 0.14971491694450378, -0.9193209409713745, 0.9541963338851929, -0.2539595663547516, 0.030332615599036217, 0.033625368028879166], [0.6578242778778076, -0.5565484166145325, -0.46841466426849365, -0.28305086493492126, 0.259501188993454, 0.315095454454422, -0.20767350494861603, -0.36656615138053894, 0.4232398271560669, 0.3215179741382599, 0.4201224446296692, 0.6271895170211792, -0.6687760949134827, -0.5995692610740662, -0.6001068353652954, 0.40653282403945923], [0.30315542221069336, 0.01790681667625904, -0.29241108894348145, 0.19105269014835358, -0.0649670735001564, 0.16689346730709076, -0.24504584074020386, 0.1162225678563118, -0.15423402190208435, -0.04003487154841423, -0.43904680013656616, -0.19932599365711212, -0.24323990941047668, 0.29675179719924927, -0.3748013377189636, 0.2693401575088501], [-0.1299808919429779, -0.6349151134490967, -0.015877792611718178, -0.8530038595199585, 0.7287796139717102, -0.6169775128364563, 0.6537294387817383, -0.4157446324825287, -0.022745370864868164, 0.07064704596996307, -0.3589870035648346, -0.029107145965099335, -0.13878320157527924, -0.8439012765884399, -0.4011966586112976, -0.5596258044242859], [0.5431634187698364, 0.26279202103614807, 0.20015493035316467, 0.09461095929145813, 0.04373271018266678, 0.27176403999328613, 0.36200469732284546, 0.6197529435157776, 0.4115816354751587, 0.20170331001281738, 0.5194951891899109, 0.6443502306938171, 0.6766461730003357, 0.08519235253334045, -0.21060647070407867, -0.04642264544963837], [-1.1555945873260498, 0.46103787422180176, -0.4115719497203827, 0.29807770252227783, -0.804722249507904, -0.3137549161911011, -0.2666654884815216, -0.1157144084572792, -1.1061522960662842, -0.8259963393211365, -0.2925634980201721, -0.7174461483955383, 0.14662808179855347, 0.02951253391802311, 0.044849153608083725, -0.7922604084014893], [-0.9818557500839233, 0.4656137526035309, 1.0151009559631348, 0.21752625703811646, 0.06292735785245895, -0.005397171713411808, -0.6307840943336487, 0.005270794499665499, -1.1255009174346924, -0.3375985324382782, -0.01250387728214264, -0.38713791966438293, 0.7535534501075745, 0.44836074113845825, 0.1704842895269394, -0.27425432205200195], [-1.6760718822479248, -0.5316236615180969, 0.22880588471889496, -0.058270495384931564, 0.19614093005657196, 0.09549678862094879, -0.6904453039169312, 0.14768879115581512, -1.8116891384124756, -0.9928916692733765, -0.6203842759132385, -1.2326231002807617, 0.0053681558929383755, 0.2738197445869446, -0.4125664532184601, -0.16854655742645264], [0.6178452372550964, 0.04752690717577934, -0.4405260384082794, 0.3257218897342682, -0.28314849734306335, -0.20040465891361237, 0.9440620541572571, -0.37945792078971863, 0.7256278991699219, 0.5265240669250488, 0.4835663139820099, 0.5630431175231934, -0.5808658599853516, 0.587226152420044, 0.0447557233273983, 0.1518673151731491], [-0.5810381770133972, -0.44671201705932617, -0.20431853830814362, 0.476634681224823, 0.7119740843772888, -0.2207901030778885, 0.16143272817134857, 0.07546792924404144, -0.29899969696998596, -0.29744911193847656, 0.5222117900848389, -0.0005999861168675125, 0.08019902557134628, 0.2977709174156189, 0.4552689492702484, 0.04747637361288071], [0.3129894435405731, 0.11496765166521072, 0.11094487458467484, 0.34218084812164307, 0.29960864782333374, 0.10281141102313995, -0.37750113010406494, 0.46287107467651367, 0.5499277710914612, 0.5618097186088562, -0.3554569184780121, 0.3676958382129669, 0.16446369886398315, 0.06083446368575096, 0.12856867909431458, 0.7072193622589111], [-0.6771010756492615, 0.6117590069770813, 0.19501619040966034, 0.5720846056938171, -0.2021796852350235, -0.04778553918004036, -0.8745236396789551, 0.4729851186275482, -0.40731656551361084, -0.5391549468040466, 0.42906415462493896, -0.5461414456367493, 0.8076923489570618, 0.7300943732261658, 0.3216472864151001, -0.06875134259462357], [0.156000554561615, 0.054142821580171585, 0.7509838342666626, 0.08024143427610397, -0.35457339882850647, -1.2451937198638916, -0.3410220742225647, -0.21478581428527832, 0.5081995129585266, 0.4874594211578369, -1.0372586250305176, 0.04454386234283447, 0.34849435091018677, -0.016603102907538414, 0.3876813054084778, 0.30927595496177673], [0.04838450253009796, -0.6922451853752136, 0.03300591930747032, -0.7029948234558105, -0.10188152641057968, 0.08068374544382095, -0.025516575202345848, 0.18709036707878113, 0.4099595248699188, 0.3316267132759094, 0.7523834705352783, 0.0574483759701252, -0.2865504026412964, -0.3573776185512543, 0.11351340264081955, 0.44649460911750793], [-0.6628261804580688, -0.6574884057044983, -0.032435014843940735, -0.2966025769710541, -0.5756624937057495, 0.08738920092582703, 0.7298229336738586, -0.22305352985858917, -0.7962574362754822, -0.4426827132701874, 0.6322188973426819, -0.5351136326789856, -0.5538220405578613, -0.9459560513496399, -0.247791588306427, 0.16637489199638367]], "2_weights": [[5.027083873748779, 5.670788764953613, 6.277696132659912], [1.1935635805130005, 1.2222108840942383, 1.1227540969848633], [-0.7717453241348267, -0.603190004825592, -0.45010295510292053], [-0.550270676612854, -0.6705783009529114, -0.8634614944458008], [1.4101076126098633, 1.4083666801452637, 1.481811761856079], [-0.6448969841003418, -0.5881434082984924, -0.5843767523765564], [0.6439914107322693, 0.6818845272064209, 0.5993146896362305], [0.6098407506942749, 0.6471946239471436, 0.4819566011428833], [7.293356895446777, 6.61061429977417, 7.370424270629883], [4.845555782318115, 4.851798057556152, 4.121303081512451], [0.8181577920913696, 0.8041962385177612, 0.8240511417388916], [2.091304063796997, 2.1501412391662598, 2.751551628112793], [-0.9527684450149536, -0.9862262606620789, -1.1352344751358032], [-1.2029832601547241, -1.0176382064819336, -0.9305326342582703], [0.41788220405578613, 0.7052088379859924, -0.11151524633169174], [1.6838316917419434, 1.8242865800857544, 1.8045843839645386]], "0_bias": [-0.013557354919612408, -0.19798293709754944, -0.14683598279953003, -0.11861035972833633, 0.041360653936862946, 0.08937783539295197, 0.08528859913349152, -0.1337479203939438, 0.2992303967475891, -0.15827706456184387, -0.2586630582809448, -0.034723151475191116, 0.1868068128824234, -0.0452137216925621, -0.24813807010650635, 0.1814982146024704], "1_bias": [-0.2463558167219162, 0.12559378147125244, 0.09210212528705597, -0.23082119226455688, 0.1014634221792221, 0.39031296968460083, 0.08904736489057541, -0.59603351354599, 0.004756679758429527, -0.11101188510656357, -0.12053743749856949, -0.049469515681266785, -0.16453081369400024, 0.10623634606599808, -0.41527050733566284, -0.2641398310661316], "2_bias": [0.8906874060630798, 0.8347062468528748, 0.9060154557228088],"obj_num": 8}